function [y1] = myNeuralNetworkFunction(x1)
%MYNEURALNETWORKFUNCTION neural network simulation function.
%
% Auto-generated by MATLAB, 01-Aug-2023 17:14:08.
%
% [y1] = myNeuralNetworkFunction(x1) takes these arguments:
%   x = Qx8 matrix, input #1
% and returns:
%   y = Qx1 matrix, output #1
% where Q is the number of samples.

%#ok<*RPMT0>

% ===== NEURAL NETWORK CONSTANTS =====

% Input 1
x1_step1.xoffset = [0.93242090478918;-555.57253969609;-5947732.16988263;-403.219807538088;0.778952980863222;-507.528003711434;-5759699.92748023;-400.714959966711];
x1_step1.gain = [0.490392256497794;0.00182747613343808;1.69460696365126e-07;0.00383902916378535;0.499055776690585;0.0018934233918363;1.69702246312616e-07;0.00618082898366953];
x1_step1.ymin = -1;

% Layer 1
b1 = [1.1739089108230655878;-4.5785740423580953973;-2.0911632584296202531;-4.6034495605277303554;-1.2184718613581499991;-1.1711442359658861267;1.1931426894581240727;-0.44800422376687559778;0.1347998933030623292;-0.44070551182786493749];
IW1_1 = [1.3899973933403173554 -0.052119621222141462868 -2.4900524580373848416 0.21984423533829619557 0.18150413200498549671 -0.65417723055033527579 -0.29510744021337986798 0.50317251292229259185;6.309959665021585451 0.73353278996742377061 2.1816218493298698 -0.78983344373970754138 6.3959836158843677012 -2.2585057191386797015 -5.1319411900274483074 -3.941331452691811954;4.3317195216382362588 -4.0933131221376761744 -1.9994917883098040079 -7.2446255404914916554 -0.079429903031740300978 -2.5011787518349315462 -3.2943086826355294505 5.8672367292815685857;-4.9421784597335207678 4.9169809493576890347 -3.0222667688659932139 -0.15084451764845102639 -0.61654520220981701151 3.2462265514045132164 -3.5537136360781720335 -1.0801084594886378731;-1.0673296230737492341 0.11896271837057845189 2.4236247231740688513 -0.34405459689371864496 -0.00921635374113950398 0.65498640457102563772 0.46333578414072257301 -0.40127063966047188392;-1.724615795185035827 -0.042693654337241142283 2.6334135238005362822 -0.11074990164398551551 -0.35644847586578459753 0.66300831913353475144 0.18039081267703041545 -0.61656400685529455519;0.47700304060764814329 5.8021698083857646822 -6.285465735863400738 0.1936072833893329459 0.10194713482980030661 -0.023518195733880732645 -0.51519746862344828475 -0.14092363433424673347;-0.94726473686455914258 2.9992256037860327567 -3.3950677898532641841 0.25549084717266001832 -0.51927759955983543438 1.9884861892777607739 -2.3374874895103432415 -0.0091993099298611578224;10.594475679615465324 -0.98724598699879906327 0.035269418800234098033 -0.53451695185240688524 2.3600143994041347106 6.377715218547315601 6.1323811270124801709 -1.2012234662203609137;-1.1201164803895395927 2.9980888205559264037 -3.4476112081068928106 0.35124216297674493159 -0.68765730980916051074 2.3460864222698014636 -2.7700427939506511166 0.012400874275030508015];

% Layer 2
b2 = 0.31650497373995489792;
LW2_1 = [-10.160730370691744895 -0.013885012380238251004 -0.023818644696491971663 0.3557916685274830626 -4.9805483090693867254 -5.0776695106599207818 -0.36217201760661638099 -3.0081088182995219249 -0.0020214307742426437971 2.3153389584477634955];

% Output 1
y1_step1.ymin = -1;
y1_step1.gain = 0.0200012646838705;
y1_step1.xoffset = -49.9970276475188;

% ===== SIMULATION ========

% Dimensions
Q = size(x1,1); % samples

% Input 1
x1 = x1';
xp1 = mapminmax_apply(x1,x1_step1);

% Layer 1
a1 = tansig_apply(repmat(b1,1,Q) + IW1_1*xp1);

% Layer 2
a2 = repmat(b2,1,Q) + LW2_1*a1;

% Output 1
y1 = mapminmax_reverse(a2,y1_step1);
y1 = y1';
end

% ===== MODULE FUNCTIONS ========

% Map Minimum and Maximum Input Processing Function
function y = mapminmax_apply(x,settings)
y = bsxfun(@minus,x,settings.xoffset);
y = bsxfun(@times,y,settings.gain);
y = bsxfun(@plus,y,settings.ymin);
end

% Sigmoid Symmetric Transfer Function
function a = tansig_apply(n,~)
a = 2 ./ (1 + exp(-2*n)) - 1;
end

% Map Minimum and Maximum Output Reverse-Processing Function
function x = mapminmax_reverse(y,settings)
x = bsxfun(@minus,y,settings.ymin);
x = bsxfun(@rdivide,x,settings.gain);
x = bsxfun(@plus,x,settings.xoffset);
end
