function [y1] = myNeuralNetworkFunction(x1)
%MYNEURALNETWORKFUNCTION neural network simulation function.
%
% Auto-generated by MATLAB, 01-Aug-2023 17:14:59.
%
% [y1] = myNeuralNetworkFunction(x1) takes these arguments:
%   x = Qx8 matrix, input #1
% and returns:
%   y = Qx1 matrix, output #1
% where Q is the number of samples.

%#ok<*RPMT0>

% ===== NEURAL NETWORK CONSTANTS =====

% Input 1
x1_step1.xoffset = [0.93242090478918;-555.57253969609;-5947732.16988263;-403.219807538088;0.778952980863222;-507.528003711434;-5759699.92748023;-400.714959966711];
x1_step1.gain = [0.490392256497794;0.00182747613343808;1.69460696365126e-07;0.00383902916378535;0.499055776690585;0.0018934233918363;1.69702246312616e-07;0.00618082898366953];
x1_step1.ymin = -1;

% Layer 1
b1 = [0.72912415413543407716;-0.52422146178078066203;-0.73053891570196261007;0.39016039881492259322;-0.6253172893899540119;0.71840737102420160198;-0.062090520176133340291;-1.0965875922303034429;1.1324668691778814189;-1.062665288593942492];
IW1_1 = [-0.090462737273184309905 0.50410819444913523846 0.0082866820323726948783 -0.48704914287250600236 0.89594657739229566218 -0.6650606838714968605 -0.61611190335583843058 -0.079147875527914912652;0.49951518714947912292 0.10033360501633774298 -0.11394272453953720181 1.6819197835061523438 -0.91970465705021620106 -0.31960720660959390793 -0.19555280090959520356 -0.97345346079417327534;-0.20178346771956948147 -0.74638460821264618339 -0.10171738888679217327 0.52748940487382833808 -1.4383658312873397467 0.8272033503309577096 0.81335827489630885268 0.016853883139155131921;-1.6200395476053579547 0.12770571676385286675 -0.44486624152447434843 -0.68078439495396159131 -2.234886352701080714 0.011674568174644002136 1.1968073888478598654 -0.020876637640193901335;-0.47623569484539635122 -0.11499131566977191521 -0.83771502520823570848 -2.6987048929713584045 -0.082951385923336048989 -0.14604995535940623608 0.41611212230509819765 1.0041238298656716132;0.51667841386157109529 0.18197590498413121485 0.99550101826066528243 2.68292406084601609 0.3314659067638001666 0.13513125804713579936 -0.50433226178183143684 -1.210458921504266927;0.079878643078290262336 0.036839395537444606654 -0.18302483496774452076 1.1831629034863671013 -0.39612198463811720828 -0.32920867588382257685 -0.31477161783302970433 -0.54054320223874285922;-0.56481603898383980766 -0.036430560687234700423 0.2134089685437804973 4.999194163832243909 -0.59756177681859856676 0.087612362271909619005 -0.42780211545570284715 0.69065589063872445674;0.52772285412308861385 -0.12679321953595229511 -0.25843711819117975992 -4.9785637961152948705 0.54103434577170672615 0.057534500350078149333 0.44882392700952322695 -0.48396012997319709514;-0.055299173052084059365 0.69595413907414427346 -0.21468266109073227965 -3.5052754128833130132 0.56780466539066531961 -0.67275564581185698376 0.17808655001110237914 -0.35822012142312015248];

% Layer 2
b2 = -0.16815300862277093863;
LW2_1 = [1.4311222407119941202 0.92916850883702806208 0.85284991291179745865 -0.087368511407779625433 2.6998834982650343761 2.135056051238294561 -1.3876807150311676331 1.6853934732660798002 1.7680388163309508354 -0.29155183975125098517];

% Output 1
y1_step1.ymin = -1;
y1_step1.gain = 1.00012668334672;
y1_step1.xoffset = -0.999763806959834;

% ===== SIMULATION ========

% Dimensions
Q = size(x1,1); % samples

% Input 1
x1 = x1';
xp1 = mapminmax_apply(x1,x1_step1);

% Layer 1
a1 = tansig_apply(repmat(b1,1,Q) + IW1_1*xp1);

% Layer 2
a2 = repmat(b2,1,Q) + LW2_1*a1;

% Output 1
y1 = mapminmax_reverse(a2,y1_step1);
y1 = y1';
end

% ===== MODULE FUNCTIONS ========

% Map Minimum and Maximum Input Processing Function
function y = mapminmax_apply(x,settings)
y = bsxfun(@minus,x,settings.xoffset);
y = bsxfun(@times,y,settings.gain);
y = bsxfun(@plus,y,settings.ymin);
end

% Sigmoid Symmetric Transfer Function
function a = tansig_apply(n,~)
a = 2 ./ (1 + exp(-2*n)) - 1;
end

% Map Minimum and Maximum Output Reverse-Processing Function
function x = mapminmax_reverse(y,settings)
x = bsxfun(@minus,y,settings.ymin);
x = bsxfun(@rdivide,x,settings.gain);
x = bsxfun(@plus,x,settings.xoffset);
end
